digraph Tree {
node [shape=box] ;
0 [label="Sex <= 0.5\ngini = 0.485\nsamples = 474\nvalue = [278, 196]"] ;
1 [label="Pclass <= 2.5\ngini = 0.364\nsamples = 180\nvalue = [43, 137]"] ;
0 -> 1 [labeldistance=2.5, labelangle=45, headlabel="True"] ;
2 [label="Age <= 2.5\ngini = 0.119\nsamples = 110\nvalue = [7, 103]"] ;
1 -> 2 ;
3 [label="Parch <= 1.5\ngini = 0.5\nsamples = 2\nvalue = [1, 1]"] ;
2 -> 3 ;
4 [label="gini = 0.0\nsamples = 1\nvalue = [0, 1]"] ;
3 -> 4 ;
5 [label="gini = 0.0\nsamples = 1\nvalue = [1, 0]"] ;
3 -> 5 ;
6 [label="Fare <= 28.856\ngini = 0.105\nsamples = 108\nvalue = [6, 102]"] ;
2 -> 6 ;
7 [label="Fare <= 28.231\ngini = 0.177\nsamples = 51\nvalue = [5, 46]"] ;
6 -> 7 ;
8 [label="gini = 0.147\nsamples = 50\nvalue = [4, 46]"] ;
7 -> 8 ;
9 [label="gini = 0.0\nsamples = 1\nvalue = [1, 0]"] ;
7 -> 9 ;
10 [label="Fare <= 149.035\ngini = 0.034\nsamples = 57\nvalue = [1, 56]"] ;
6 -> 10 ;
11 [label="gini = 0.0\nsamples = 48\nvalue = [0, 48]"] ;
10 -> 11 ;
12 [label="gini = 0.198\nsamples = 9\nvalue = [1, 8]"] ;
10 -> 12 ;
13 [label="Fare <= 20.8\ngini = 0.5\nsamples = 70\nvalue = [36, 34]"] ;
1 -> 13 ;
14 [label="Age <= 36.5\ngini = 0.494\nsamples = 56\nvalue = [25, 31]"] ;
13 -> 14 ;
15 [label="Parch <= 1.5\ngini = 0.475\nsamples = 49\nvalue = [19, 30]"] ;
14 -> 15 ;
16 [label="gini = 0.491\nsamples = 44\nvalue = [19, 25]"] ;
15 -> 16 ;
17 [label="gini = 0.0\nsamples = 5\nvalue = [0, 5]"] ;
15 -> 17 ;
18 [label="Age <= 55.0\ngini = 0.245\nsamples = 7\nvalue = [6, 1]"] ;
14 -> 18 ;
19 [label="gini = 0.0\nsamples = 6\nvalue = [6, 0]"] ;
18 -> 19 ;
20 [label="gini = 0.0\nsamples = 1\nvalue = [0, 1]"] ;
18 -> 20 ;
21 [label="Parch <= 4.5\ngini = 0.337\nsamples = 14\nvalue = [11, 3]"] ;
13 -> 21 ;
22 [label="Age <= 6.5\ngini = 0.26\nsamples = 13\nvalue = [11, 2]"] ;
21 -> 22 ;
23 [label="gini = 0.5\nsamples = 4\nvalue = [2, 2]"] ;
22 -> 23 ;
24 [label="gini = 0.0\nsamples = 9\nvalue = [9, 0]"] ;
22 -> 24 ;
25 [label="gini = 0.0\nsamples = 1\nvalue = [0, 1]"] ;
21 -> 25 ;
26 [label="Age <= 13.5\ngini = 0.321\nsamples = 294\nvalue = [235, 59]"] ;
0 -> 26 [labeldistance=2.5, labelangle=-45, headlabel="False"] ;
27 [label="SibSp <= 2.5\ngini = 0.497\nsamples = 24\nvalue = [11, 13]"] ;
26 -> 27 ;
28 [label="gini = 0.0\nsamples = 12\nvalue = [0, 12]"] ;
27 -> 28 ;
29 [label="Age <= 3.5\ngini = 0.153\nsamples = 12\nvalue = [11, 1]"] ;
27 -> 29 ;
30 [label="Age <= 2.5\ngini = 0.32\nsamples = 5\nvalue = [4, 1]"] ;
29 -> 30 ;
31 [label="gini = 0.0\nsamples = 4\nvalue = [4, 0]"] ;
30 -> 31 ;
32 [label="gini = 0.0\nsamples = 1\nvalue = [0, 1]"] ;
30 -> 32 ;
33 [label="gini = 0.0\nsamples = 7\nvalue = [7, 0]"] ;
29 -> 33 ;
34 [label="Pclass <= 1.5\ngini = 0.283\nsamples = 270\nvalue = [224, 46]"] ;
26 -> 34 ;
35 [label="Age <= 49.5\ngini = 0.414\nsamples = 65\nvalue = [46, 19]"] ;
34 -> 35 ;
36 [label="Fare <= 27.135\ngini = 0.474\nsamples = 44\nvalue = [27, 17]"] ;
35 -> 36 ;
37 [label="gini = 0.375\nsamples = 8\nvalue = [2, 6]"] ;
36 -> 37 ;
38 [label="gini = 0.424\nsamples = 36\nvalue = [25, 11]"] ;
36 -> 38 ;
39 [label="Age <= 60.5\ngini = 0.172\nsamples = 21\nvalue = [19, 2]"] ;
35 -> 39 ;
40 [label="gini = 0.278\nsamples = 12\nvalue = [10, 2]"] ;
39 -> 40 ;
41 [label="gini = 0.0\nsamples = 9\nvalue = [9, 0]"] ;
39 -> 41 ;
42 [label="SibSp <= 0.5\ngini = 0.229\nsamples = 205\nvalue = [178, 27]"] ;
34 -> 42 ;
43 [label="Fare <= 41.248\ngini = 0.262\nsamples = 161\nvalue = [136, 25]"] ;
42 -> 43 ;
44 [label="gini = 0.251\nsamples = 156\nvalue = [133, 23]"] ;
43 -> 44 ;
45 [label="gini = 0.48\nsamples = 5\nvalue = [3, 2]"] ;
43 -> 45 ;
46 [label="Fare <= 7.815\ngini = 0.087\nsamples = 44\nvalue = [42, 2]"] ;
42 -> 46 ;
47 [label="gini = 0.245\nsamples = 7\nvalue = [6, 1]"] ;
46 -> 47 ;
48 [label="gini = 0.053\nsamples = 37\nvalue = [36, 1]"] ;
46 -> 48 ;
}